<?xml version="1.0"?>
<opencv_storage>
<cascade>
  <stageType>BOOST</stageType>
  <featureType>LBP</featureType>
  <height>60</height>
  <width>60</width>
  <stageParams>
    <boostType>GAB</boostType>
    <minHitRate>9.9500000476837158e-01</minHitRate>
    <maxFalseAlarm>3.0000001192092896e-01</maxFalseAlarm>
    <weightTrimRate>9.4999999999999996e-01</weightTrimRate>
    <maxDepth>1</maxDepth>
    <maxWeakCount>100</maxWeakCount></stageParams>
  <featureParams>
    <maxCatCount>256</maxCatCount>
    <featSize>1</featSize></featureParams>
  <stageNum>9</stageNum>
  <stages>
    <!-- stage 0 -->
    <_>
      <maxWeakCount>4</maxWeakCount>
      <stageThreshold>-7.3545986413955688e-01</stageThreshold>
      <weakClassifiers>
        <_>
          <internalNodes>
            0 -1 2 -673448065 -741092965 1359462747 -2633333 -209607837
            -611786487 -1281757183 -2098181</internalNodes>
          <leafValues>
            -8.7003058195114136e-01 6.2621361017227173e-01</leafValues></_>
        <_>
          <internalNodes>
            0 -1 45 -1415581729 -2033015850 285447583 -2104041145
            1476508095 1939070987 -2086408257 -3164181</internalNodes>
          <leafValues>
            -8.6465811729431152e-01 4.9001783132553101e-01</leafValues></_>
        <_>
          <internalNodes>
            0 -1 13 90120750 627005879 -1996385013 -4219893 1535306683
            601588131 1762654923 1676669546</internalNodes>
          <leafValues>
            -9.0332925319671631e-01 4.3648409843444824e-01</leafValues></_>
        <_>
          <internalNodes>
            0 -1 6 -44081281 -685774399 1359147415 -541894626 1778600310
            -1415003646 -460723449 -1049665</internalNodes>
          <leafValues>
            -7.5986397266387939e-01 5.6274473667144775e-01</leafValues></_></weakClassifiers></_>
    <!-- stage 1 -->
    <_>
      <maxWeakCount>4</maxWeakCount>
      <stageThreshold>-8.5949313640594482e-01</stageThreshold>
      <weakClassifiers>
        <_>
          <internalNodes>
            0 -1 43 -371195905 -1879071777 -1073523317 -1497384107
            834257887 -880434961 -792007777 -85988437</internalNodes>
          <leafValues>
            -8.1012660264968872e-01 3.1578946113586426e-01</leafValues></_>
        <_>
          <internalNodes>
            0 -1 28 -717335300 -116375216 85033119 -1224081008
            -1182789192 -1164793626 -1576314644 -660578208</internalNodes>
          <leafValues>
            -7.8674882650375366e-01 3.8921228051185608e-01</leafValues></_>
        <_>
          <internalNodes>
            0 -1 40 -993025025 1860170151 -786314017 1653776650
            -1186401985 1267581131 -1383507793 -8924497</internalNodes>
          <leafValues>
            -7.8936225175857544e-01 4.4900006055831909e-01</leafValues></_>
        <_>
          <internalNodes>
            0 -1 14 -36176805 1762087255 -587131521 -7437437 -120884365
            2013583488 -244452605 -67906582</internalNodes>
          <leafValues>
            -7.7513265609741211e-01 4.2897489666938782e-01</leafValues></_></weakClassifiers></_>
    <!-- stage 2 -->
    <_>
      <maxWeakCount>5</maxWeakCount>
      <stageThreshold>-6.2261819839477539e-01</stageThreshold>
      <weakClassifiers>
        <_>
          <internalNodes>
            0 -1 38 -606088257 -331891215 -1253460609 -293112867
            -12976257 -105328390 -7935493 -4287639</internalNodes>
          <leafValues>
            -8.4748697280883789e-01 1.7314487695693970e-01</leafValues></_>
        <_>
          <internalNodes>
            0 -1 7 -720967181 1599603460 151030237 395710592 1485471932
            -74809154 279488744 994574472</internalNodes>
          <leafValues>
            -7.6303064823150635e-01 4.5077979564666748e-01</leafValues></_>
        <_>
          <internalNodes>
            0 -1 23 -107249803 -805593715 -717520261 2057270554
            1455912773 639580615 -210044665 -603980305</internalNodes>
          <leafValues>
            -8.1023859977722168e-01 4.3144953250885010e-01</leafValues></_>
        <_>
          <internalNodes>
            0 -1 46 -1879253025 -1896359281 -139404870 251570978
            -509871107 1874775529 -46421542 -1359222065</internalNodes>
          <leafValues>
            -8.4617954492568970e-01 4.1120833158493042e-01</leafValues></_>
        <_>
          <internalNodes>
            0 -1 5 -140675305 1431287315 -2008954403 -541894697
            1250385700 -372727637 1507937332 -1360340399</internalNodes>
          <leafValues>
            -8.4751260280609131e-01 4.2600038647651672e-01</leafValues></_></weakClassifiers></_>
    <!-- stage 3 -->
    <_>
      <maxWeakCount>5</maxWeakCount>
      <stageThreshold>-8.5289698839187622e-01</stageThreshold>
      <weakClassifiers>
        <_>
          <internalNodes>
            0 -1 0 1983241471 -749010913 -1740543873 1347590283
            -1087723398 -96892670 -1366829105 1920117311</internalNodes>
          <leafValues>
            -8.6943006515502930e-01 -5.4304637014865875e-02</leafValues></_>
        <_>
          <internalNodes>
            0 -1 24 608825126 1938936021 122141 -543195771 278518955
            1805228430 -654185633 1139657519</internalNodes>
          <leafValues>
            -7.8455376625061035e-01 2.8439885377883911e-01</leafValues></_>
        <_>
          <internalNodes>
            0 -1 31 -1620313049 -2003543993 352432539 -1618112364
            -1014068261 -1526628222 1281307948 99086416</internalNodes>
          <leafValues>
            -7.6620018482208252e-01 3.3101746439933777e-01</leafValues></_>
        <_>
          <internalNodes>
            0 -1 9 -1046752257 1527030163 1342282123 -582385642
            -1609923757 2088945826 -1551641789 -16792027</internalNodes>
          <leafValues>
            -7.2861528396606445e-01 4.3607264757156372e-01</leafValues></_>
        <_>
          <internalNodes>
            0 -1 21 1562009816 1548833240 318768329 -1961754624
            -662664008 -1197965144 34244792 165806474</internalNodes>
          <leafValues>
            -6.8539339303970337e-01 4.6168586611747742e-01</leafValues></_></weakClassifiers></_>
    <!-- stage 4 -->
    <_>
      <maxWeakCount>6</maxWeakCount>
      <stageThreshold>-9.7524082660675049e-01</stageThreshold>
      <weakClassifiers>
        <_>
          <internalNodes>
            0 -1 20 -799944200 -178171775 -2130701935 1569539080
            -880768261 -6654744 -1207221044 -1693731968</internalNodes>
          <leafValues>
            -7.5694996118545532e-01 1.5835140645503998e-01</leafValues></_>
        <_>
          <internalNodes>
            0 -1 25 -789745033 878776594 -989723315 -783089405
            1346990919 -251557627 -494141555 -10260629</internalNodes>
          <leafValues>
            -6.3868224620819092e-01 3.8674542307853699e-01</leafValues></_>
        <_>
          <internalNodes>
            0 -1 41 629407635 -317276012 -788430577 -552232958 444711098
            -847085559 1091565645 1303069100</internalNodes>
          <leafValues>
            -6.6582936048507690e-01 3.8139215111732483e-01</leafValues></_>
        <_>
          <internalNodes>
            0 -1 15 -729158003 1058314332 1526745568 1024409897
            -1207829798 -83361672 -1961621336 417980422</internalNodes>
          <leafValues>
            -6.3446575403213501e-01 4.5045852661132812e-01</leafValues></_>
        <_>
          <internalNodes>
            0 -1 4 -191839949 -576945982 554289269 1536498697 562219537
            -901110460 -998195087 -13245897</internalNodes>
          <leafValues>
            -6.6741651296615601e-01 4.2658576369285583e-01</leafValues></_>
        <_>
          <internalNodes>
            0 -1 10 -699699208 -746322616 -1992294373 1226391562 219375
            1342185508 1929431178 1209141387</internalNodes>
          <leafValues>
            -5.9984749555587769e-01 4.7366678714752197e-01</leafValues></_></weakClassifiers></_>
    <!-- stage 5 -->
    <_>
      <maxWeakCount>7</maxWeakCount>
      <stageThreshold>-7.8828263282775879e-01</stageThreshold>
      <weakClassifiers>
        <_>
          <internalNodes>
            0 -1 16 -74082386 -146702319 352339972 -678886655 -922687333
            2130747530 -1467434853 -542144373</internalNodes>
          <leafValues>
            -7.4565559625625610e-01 1.4096915721893311e-01</leafValues></_>
        <_>
          <internalNodes>
            0 -1 19 51432538 -716091388 1024692730 2104788480 143567004
            -87523143 1133283628 664150566</internalNodes>
          <leafValues>
            -7.6112198829650879e-01 2.3811289668083191e-01</leafValues></_>
        <_>
          <internalNodes>
            0 -1 39 803077855 -1575112448 -1593456372 -963328112
            199925175 1396705450 -1985365525 -302281749</internalNodes>
          <leafValues>
            -6.9340169429779053e-01 3.1120061874389648e-01</leafValues></_>
        <_>
          <internalNodes>
            0 -1 8 -720834476 -784760816 16798288 1377042452 -1878359928
            -1153957888 537037770 1109069966</internalNodes>
          <leafValues>
            -5.4601389169692993e-01 4.3352496623992920e-01</leafValues></_>
        <_>
          <internalNodes>
            0 -1 1 -553814255 1347108947 -779677557 -712048243
            -890220032 -1157496445 -652121564 -1142597083</internalNodes>
          <leafValues>
            -7.6046288013458252e-01 3.0642664432525635e-01</leafValues></_>
        <_>
          <internalNodes>
            0 -1 30 -1056194612 1745946923 -997653368 -827809592
            -536623011 17350808 -805025557 -1414821221</internalNodes>
          <leafValues>
            -5.8361893892288208e-01 4.6064057946205139e-01</leafValues></_>
        <_>
          <internalNodes>
            0 -1 27 -1191096318 269046293 85004761 -615972204
            -1476357636 -1216348102 -1925003060 155027084</internalNodes>
          <leafValues>
            -6.1303305625915527e-01 4.3806502223014832e-01</leafValues></_></weakClassifiers></_>
    <!-- stage 6 -->
    <_>
      <maxWeakCount>6</maxWeakCount>
      <stageThreshold>-1.1843622922897339e+00</stageThreshold>
      <weakClassifiers>
        <_>
          <internalNodes>
            0 -1 29 -581698593 -308291893 -2130521379 -473958177
            2103167855 -82903039 -343295437 -1381</internalNodes>
          <leafValues>
            -7.2883898019790649e-01 2.4155844748020172e-01</leafValues></_>
        <_>
          <internalNodes>
            0 -1 44 -1345856161 776391646 279006171 -1529064091
            -276129025 -293289981 -1148454437 -291513637</internalNodes>
          <leafValues>
            -7.8056371212005615e-01 2.6479151844978333e-01</leafValues></_>
        <_>
          <internalNodes>
            0 -1 11 -270717321 -586321541 -1539842049 2097923367
            -176002768 -650571758 -1853625596 -27497401</internalNodes>
          <leafValues>
            -8.7727433443069458e-01 2.4906061589717865e-01</leafValues></_>
        <_>
          <internalNodes>
            0 -1 32 1196531239 1914163614 1091567649 -553297024
            570614933 -743898999 -784282661 1649275717</internalNodes>
          <leafValues>
            -5.1925057172775269e-01 4.8207280039787292e-01</leafValues></_>
        <_>
          <internalNodes>
            0 -1 36 -1282149139 597209479 -1535074556 773583337
            -1315723145 1811972130 -1341540797 2079566801</internalNodes>
          <leafValues>
            -7.3586130142211914e-01 3.2932922244071960e-01</leafValues></_>
        <_>
          <internalNodes>
            0 -1 18 1380998488 -56949752 1225295121 525341576
            -1070896709 -1928462208 -803665478 -1946156500</internalNodes>
          <leafValues>
            -7.1558701992034912e-01 3.3525028824806213e-01</leafValues></_></weakClassifiers></_>
    <!-- stage 7 -->
    <_>
      <maxWeakCount>7</maxWeakCount>
      <stageThreshold>-1.2039465904235840e+00</stageThreshold>
      <weakClassifiers>
        <_>
          <internalNodes>
            0 -1 47 -1518026753 -1467428653 -1996369577 745968410
            -2093485137 -930885486 -394221137 -572009229</internalNodes>
          <leafValues>
            -8.7173396348953247e-01 -1.6628701984882355e-01</leafValues></_>
        <_>
          <internalNodes>
            0 -1 37 -1311273017 -1568232229 -485960250 -961096923
            1272655914 1770383370 -1039426830 -19018853</internalNodes>
          <leafValues>
            -6.9126451015472412e-01 1.9725322723388672e-01</leafValues></_>
        <_>
          <internalNodes>
            0 -1 26 1677714300 600283843 -666849095 -451591221
            -473413309 -1920925621 400099959 952793859</internalNodes>
          <leafValues>
            -7.9238265752792358e-01 2.2576251626014709e-01</leafValues></_>
        <_>
          <internalNodes>
            0 -1 17 407131888 -603925687 -2129641296 1366298763
            -1064782902 -1711101767 -2121776998 420137481</internalNodes>
          <leafValues>
            -4.8690307140350342e-01 4.3689775466918945e-01</leafValues></_>
        <_>
          <internalNodes>
            0 -1 35 173655379 1389482055 -1862270835 -549437119
            1107392513 1082165265 1644204943 245885747</internalNodes>
          <leafValues>
            -6.3245320320129395e-01 3.2456335425376892e-01</leafValues></_>
        <_>
          <internalNodes>
            0 -1 42 -729040419 -528415566 -1719631620 1183531457
            545325691 1577713808 -671020947 -1548047981</internalNodes>
          <leafValues>
            -8.0107784271240234e-01 2.5336709618568420e-01</leafValues></_>
        <_>
          <internalNodes>
            0 -1 12 -586817377 2115506198 -1048477373 2139425600
            -1862166853 -1054074751 -502790526 1251578380</internalNodes>
          <leafValues>
            -5.9671282768249512e-01 3.9125996828079224e-01</leafValues></_></weakClassifiers></_>
    <!-- stage 8 -->
    <_>
      <maxWeakCount>4</maxWeakCount>
      <stageThreshold>2.9569932818412781e-01</stageThreshold>
      <weakClassifiers>
        <_>
          <internalNodes>
            0 -1 22 2088259112 -1610711170 2147418046 1752924030 -106668
            -67666061 2003861368 168970302</internalNodes>
          <leafValues>
            -4.2857143282890320e-01 7.9723501205444336e-01</leafValues></_>
        <_>
          <internalNodes>
            0 -1 3 2126136826 -168395184 2121727736 72907641 -272732405
            2088695678 939523691 118623418</internalNodes>
          <leafValues>
            -5.8189070224761963e-01 6.7779302597045898e-01</leafValues></_>
        <_>
          <internalNodes>
            0 -1 33 251600803 989257727 -1073774785 805289596 -302006283
            -1409286785 1577035391 -905995728</internalNodes>
          <leafValues>
            -5.7661634683609009e-01 7.4793583154678345e-01</leafValues></_>
        <_>
          <internalNodes>
            0 -1 34 -1342111608 822087939 1276123141 285212738 32920
            -2146435072 8945793 1377535072</internalNodes>
          <leafValues>
            -6.0271239280700684e-01 6.9607800245285034e-01</leafValues></_></weakClassifiers></_></stages>
  <features>
    <_>
      <rect>
        0 10 7 5</rect></_>
    <_>
      <rect>
        0 31 1 3</rect></_>
    <_>
      <rect>
        0 32 5 9</rect></_>
    <_>
      <rect>
        1 1 4 4</rect></_>
    <_>
      <rect>
        1 54 2 2</rect></_>
    <_>
      <rect>
        2 36 2 2</rect></_>
    <_>
      <rect>
        3 29 4 4</rect></_>
    <_>
      <rect>
        4 0 15 10</rect></_>
    <_>
      <rect>
        4 6 5 3</rect></_>
    <_>
      <rect>
        6 45 4 5</rect></_>
    <_>
      <rect>
        7 6 4 5</rect></_>
    <_>
      <rect>
        7 25 3 4</rect></_>
    <_>
      <rect>
        8 2 16 11</rect></_>
    <_>
      <rect>
        8 9 15 17</rect></_>
    <_>
      <rect>
        10 46 3 4</rect></_>
    <_>
      <rect>
        11 2 16 14</rect></_>
    <_>
      <rect>
        11 36 15 8</rect></_>
    <_>
      <rect>
        12 0 5 3</rect></_>
    <_>
      <rect>
        13 7 8 7</rect></_>
    <_>
      <rect>
        14 16 9 6</rect></_>
    <_>
      <rect>
        15 0 12 7</rect></_>
    <_>
      <rect>
        15 12 8 5</rect></_>
    <_>
      <rect>
        15 19 2 3</rect></_>
    <_>
      <rect>
        15 43 2 3</rect></_>
    <_>
      <rect>
        16 15 10 15</rect></_>
    <_>
      <rect>
        16 25 2 6</rect></_>
    <_>
      <rect>
        16 51 1 2</rect></_>
    <_>
      <rect>
        19 19 10 6</rect></_>
    <_>
      <rect>
        20 11 6 5</rect></_>
    <_>
      <rect>
        20 53 1 2</rect></_>
    <_>
      <rect>
        21 41 4 6</rect></_>
    <_>
      <rect>
        25 2 11 13</rect></_>
    <_>
      <rect>
        27 12 9 16</rect></_>
    <_>
      <rect>
        29 3 7 14</rect></_>
    <_>
      <rect>
        36 4 6 4</rect></_>
    <_>
      <rect>
        36 9 8 17</rect></_>
    <_>
      <rect>
        41 54 1 1</rect></_>
    <_>
      <rect>
        42 42 1 2</rect></_>
    <_>
      <rect>
        42 47 2 1</rect></_>
    <_>
      <rect>
        43 31 2 3</rect></_>
    <_>
      <rect>
        44 41 4 5</rect></_>
    <_>
      <rect>
        45 0 5 9</rect></_>
    <_>
      <rect>
        46 57 2 1</rect></_>
    <_>
      <rect>
        47 34 1 1</rect></_>
    <_>
      <rect>
        48 28 2 2</rect></_>
    <_>
      <rect>
        48 34 4 5</rect></_>
    <_>
      <rect>
        52 38 2 2</rect></_>
    <_>
      <rect>
        53 21 2 2</rect></_></features></cascade>
</opencv_storage>
